{
  "input_shape": [
    8
  ],
  "output_shape": [
    3
  ],
  "weights": {
    "policy.mlp_extractor.policy_net.0.weight": [
      [
        0.252934992313385,
        0.30735257267951965,
        0.15176941454410553,
        0.01591772772371769,
        -0.11706274747848511,
        -0.490629106760025,
        0.27994388341903687,
        0.03135859593749046
      ],
      [
        0.24433760344982147,
        -0.12729306519031525,
        0.3580631613731384,
        0.017766358330845833,
        -0.16928480565547943,
        0.0016572402091696858,
        -0.11920254677534103,
        0.019571134820580482
      ],
      [
        0.0694931373000145,
        0.10296830534934998,
        -0.38221457600593567,
        0.05826149135828018,
        -0.18168582022190094,
        -0.13335192203521729,
        0.13190089166164398,
        0.10094790905714035
      ],
      [
        -0.2753632068634033,
        -0.10310596227645874,
        -0.3582269549369812,
        0.231775164604187,
        -0.12078245729207993,
        -0.4440535604953766,
        0.5968273878097534,
        0.14369387924671173
      ],
      [
        0.10144061595201492,
        -0.2670116722583771,
        -0.17785786092281342,
        0.06643573194742203,
        0.07366195321083069,
        -0.5544261932373047,
        -0.07725177705287933,
        0.043970737606287
      ],
      [
        0.0702967420220375,
        -0.2283017784357071,
        0.17394797503948212,
        0.03914806246757507,
        -0.10681366920471191,
        0.3054525852203369,
        0.003785359673202038,
        0.03536321222782135
      ],
      [
        0.020728474482893944,
        0.32878562808036804,
        0.40765389800071716,
        -0.1471891552209854,
        -0.2883175313472748,
        -0.056431688368320465,
        0.11373230814933777,
        0.04222672060132027
      ],
      [
        0.31259188055992126,
        0.03721237555146217,
        0.143055722117424,
        0.2948421835899353,
        -0.16631348431110382,
        -0.15980900824069977,
        -0.21625684201717377,
        0.27222323417663574
      ],
      [
        -0.41859638690948486,
        0.09032454341650009,
        -0.22183294594287872,
        0.37629470229148865,
        -0.17488233745098114,
        -0.19653722643852234,
        0.15525303781032562,
        0.07840020954608917
      ],
      [
        -0.12853950262069702,
        0.15122021734714508,
        0.001664075767621398,
        0.07359425723552704,
        0.274715393781662,
        -0.08058233559131622,
        -0.24501511454582214,
        -0.20931944251060486
      ],
      [
        -0.030762746930122375,
        0.2834181487560272,
        -0.17447711527347565,
        0.3711049556732178,
        0.05725598707795143,
        -0.168217733502388,
        0.012666542083024979,
        -0.2716950476169586
      ],
      [
        0.4790612757205963,
        -0.13845008611679077,
        -0.03581256419420242,
        -0.14783495664596558,
        0.10132177174091339,
        -0.001761551247909665,
        0.08647625893354416,
        -0.010361557826399803
      ],
      [
        0.018439413979649544,
        0.3897922933101654,
        0.14630194008350372,
        0.19598372280597687,
        0.1173388659954071,
        -0.023444944992661476,
        -0.09674988687038422,
        -0.19187712669372559
      ],
      [
        -0.18993361294269562,
        -0.0517333447933197,
        -0.14500972628593445,
        -0.28499487042427063,
        0.19140152633190155,
        0.1496569812297821,
        -0.1383359432220459,
        0.3094739317893982
      ],
      [
        0.21822771430015564,
        -0.15481902658939362,
        -0.44540148973464966,
        -0.2750259339809418,
        -0.06718046218156815,
        0.4650570750236511,
        0.04776863753795624,
        -0.3194273114204407
      ],
      [
        -0.27769649028778076,
        -0.2432868331670761,
        -0.49034470319747925,
        0.08374582976102829,
        0.11201685667037964,
        0.12045392394065857,
        -0.19212833046913147,
        0.22626756131649017
      ],
      [
        -0.45096898078918457,
        -0.07329145818948746,
        -0.3101796507835388,
        0.1339648813009262,
        -0.11218338459730148,
        0.026169229298830032,
        0.07550480216741562,
        -0.23629046976566315
      ],
      [
        0.003828644985333085,
        -0.2487800568342209,
        0.500862181186676,
        0.01982528157532215,
        0.015444180928170681,
        0.19545818865299225,
        -0.017106715589761734,
        -0.026723384857177734
      ],
      [
        -0.23752380907535553,
        0.06859954446554184,
        0.4855959415435791,
        -0.11994993686676025,
        -0.11694198846817017,
        -0.05908266827464104,
        0.02099590376019478,
        0.006152250804007053
      ],
      [
        -0.11237072199583054,
        -0.09029502421617508,
        -0.44415193796157837,
        0.06713300943374634,
        0.18520312011241913,
        0.16554966568946838,
        0.09912492334842682,
        -0.12229540944099426
      ],
      [
        -0.009679150767624378,
        0.4662933051586151,
        -0.0032881079241633415,
        0.2976069152355194,
        0.1543247550725937,
        -0.16735529899597168,
        -0.08112327754497528,
        -0.27283918857574463
      ],
      [
        -0.06257294118404388,
        -0.32106950879096985,
        -0.25678932666778564,
        0.01529653463512659,
        0.04677923023700714,
        0.23559467494487762,
        -0.05440878868103027,
        -0.413579523563385
      ],
      [
        -0.07557211071252823,
        -0.024820026010274887,
        -0.2808094322681427,
        -0.3355732858181,
        -0.12117761373519897,
        -0.038970042020082474,
        0.24628032743930817,
        0.26238828897476196
      ],
      [
        -0.10482347756624222,
        -0.034337326884269714,
        0.39590221643447876,
        -0.11319836229085922,
        -0.23499614000320435,
        0.05450133606791496,
        0.14749224483966827,
        0.06517752259969711
      ],
      [
        -0.18149249255657196,
        -0.2912524938583374,
        -0.04977712035179138,
        -0.22825098037719727,
        0.3306984305381775,
        0.13124045729637146,
        -0.15706776082515717,
        -0.09016595035791397
      ],
      [
        -0.16813279688358307,
        -0.05048438161611557,
        0.012049181386828423,
        -0.33183255791664124,
        0.0728166401386261,
        0.056071262806653976,
        -0.07288401573896408,
        0.11604718863964081
      ],
      [
        0.04950793460011482,
        0.20484358072280884,
        0.5792427062988281,
        0.42032769322395325,
        -0.40823060274124146,
        -0.04398757591843605,
        -0.23609709739685059,
        0.048558615148067474
      ],
      [
        -0.2960847318172455,
        -0.06101458892226219,
        -0.4136713147163391,
        -0.17241521179676056,
        0.11395353078842163,
        0.051661256700754166,
        0.09116292744874954,
        -0.08042985200881958
      ],
      [
        0.3297000825405121,
        -0.14280572533607483,
        0.3177664279937744,
        -0.3814482092857361,
        0.08874135464429855,
        0.07294535636901855,
        0.05377186834812164,
        -0.096833236515522
      ],
      [
        -0.16904377937316895,
        -0.21128197014331818,
        0.34397849440574646,
        -0.3554078936576843,
        0.08370362967252731,
        0.3491182029247284,
        -0.004662103485316038,
        0.06342031806707382
      ],
      [
        -0.2949836254119873,
        0.03375936672091484,
        -0.49903368949890137,
        0.3166690766811371,
        -0.10899874567985535,
        0.09706781059503555,
        0.17396947741508484,
        -0.03860921412706375
      ],
      [
        0.2570832073688507,
        0.16031216084957123,
        0.5385326743125916,
        -0.17005391418933868,
        0.09442321211099625,
        -0.3924700915813446,
        -0.007447740063071251,
        -0.0532676987349987
      ],
      [
        -0.1691177636384964,
        0.19619616866111755,
        -0.45102137327194214,
        -0.04768417403101921,
        -0.03404666855931282,
        0.004179779905825853,
        0.1517730951309204,
        -0.2107323557138443
      ],
      [
        -0.0643540546298027,
        0.31866395473480225,
        -0.5285425782203674,
        -0.11929372698068619,
        -0.34227368235588074,
        -0.07490771263837814,
        0.1697956919670105,
        0.1370365023612976
      ],
      [
        -0.29650917649269104,
        0.24874931573867798,
        0.22728238999843597,
        0.29121601581573486,
        -0.21355663239955902,
        0.10571888089179993,
        0.06522171944379807,
        -0.12037616223096848
      ],
      [
        0.5063552856445312,
        -0.4637899100780487,
        0.2883969843387604,
        0.11114007979631424,
        -0.018902314826846123,
        -0.017263170331716537,
        0.08637093752622604,
        -0.16363179683685303
      ],
      [
        0.05900511145591736,
        0.16560231149196625,
        0.13133607804775238,
        0.1564011573791504,
        -0.16774368286132812,
        -0.18028973042964935,
        -0.15259462594985962,
        -0.18164373934268951
      ],
      [
        0.2597006857395172,
        -0.26673540472984314,
        0.42250701785087585,
        0.0836048498749733,
        -0.00490148738026619,
        0.24704919755458832,
        -0.2072390764951706,
        -0.24734409153461456
      ],
      [
        0.2238917201757431,
        -0.312394917011261,
        0.2595541477203369,
        -0.3312423825263977,
        0.3793894946575165,
        0.12903805077075958,
        0.15528526902198792,
        -0.2430860847234726
      ],
      [
        -0.33630049228668213,
        -0.006597691681236029,
        -0.09405727684497833,
        0.7328627109527588,
        -0.2250199317932129,
        -0.29954391717910767,
        0.18362508714199066,
        -0.10641458630561829
      ],
      [
        0.1247759759426117,
        -0.38259756565093994,
        -0.03836515545845032,
        -0.11900343000888824,
        0.032901111990213394,
        0.027762694284319878,
        0.07305591553449631,
        0.05023109167814255
      ],
      [
        -0.1688888818025589,
        0.3842334449291229,
        -0.20886914432048798,
        0.06305651366710663,
        -0.06774374842643738,
        0.05549246817827225,
        -0.05588386207818985,
        -0.12147737294435501
      ],
      [
        -0.34834352135658264,
        -0.25817355513572693,
        0.14136040210723877,
        -0.1663745790719986,
        0.2880048155784607,
        -0.048180609941482544,
        0.1627456247806549,
        -0.0310568418353796
      ],
      [
        -0.08984838426113129,
        0.09459056705236435,
        0.2650352120399475,
        0.08656597882509232,
        -0.12275940179824829,
        -0.28994977474212646,
        0.12194153666496277,
        0.19258934259414673
      ],
      [
        -0.17575550079345703,
        -0.5147493481636047,
        0.1603599488735199,
        -0.27657029032707214,
        0.22496405243873596,
        0.11220382899045944,
        -0.04474441334605217,
        0.09508485347032547
      ],
      [
        0.017799273133277893,
        0.3322979509830475,
        -0.16106830537319183,
        0.4578447937965393,
        -0.31620150804519653,
        0.021716030314564705,
        -0.2064468413591385,
        0.03272050619125366
      ],
      [
        -0.00827381294220686,
        0.01672290824353695,
        -0.24349234998226166,
        -0.13980010151863098,
        0.3201059401035309,
        -0.04641956835985184,
        -0.1062106266617775,
        -0.15437209606170654
      ],
      [
        0.19015274941921234,
        -0.2732590436935425,
        -0.3057745695114136,
        -0.006376716773957014,
        0.2416437566280365,
        0.025281190872192383,
        -0.5041013360023499,
        0.35547056794166565
      ],
      [
        -0.5828408598899841,
        0.024053240194916725,
        -0.1693599969148636,
        0.1089918240904808,
        0.5311233401298523,
        0.08217247575521469,
        -0.1716582030057907,
        -0.18775741755962372
      ],
      [
        0.37835055589675903,
        -0.16175872087478638,
        0.22915878891944885,
        0.02151278592646122,
        0.21686992049217224,
        0.15770983695983887,
        0.04587235674262047,
        -0.5095624923706055
      ],
      [
        -0.53940349817276,
        0.4657568037509918,
        -0.13063068687915802,
        -0.05925694480538368,
        -0.2448892593383789,
        -0.19731354713439941,
        0.018190579488873482,
        0.1951310932636261
      ],
      [
        0.09237959235906601,
        0.18659520149230957,
        0.15770550072193146,
        0.1628364771604538,
        -0.009915059432387352,
        -0.3023335635662079,
        0.18216955661773682,
        0.039331335574388504
      ],
      [
        0.34668397903442383,
        0.07366924732923508,
        0.26285794377326965,
        0.19343255460262299,
        0.22801966965198517,
        -0.1570802479982376,
        -0.22671523690223694,
        -0.0604914166033268
      ],
      [
        0.3506872057914734,
        0.020605547353625298,
        0.1930209845304489,
        0.1293836086988449,
        -0.17152509093284607,
        0.05637890473008156,
        0.20541131496429443,
        -0.14870312809944153
      ],
      [
        0.010125595144927502,
        -0.4252674877643585,
        -0.34187325835227966,
        -0.05334872007369995,
        0.12324065715074539,
        0.11547394096851349,
        -0.09755509346723557,
        0.18649354577064514
      ],
      [
        -0.3570917248725891,
        0.12268704175949097,
        -0.4160175025463104,
        0.3980659544467926,
        -0.07855566591024399,
        0.03569337725639343,
        -0.05593911185860634,
        -0.11799083650112152
      ],
      [
        0.022896522656083107,
        0.14719946682453156,
        -0.35544878244400024,
        -0.0751282125711441,
        -0.08978481590747833,
        0.11015154421329498,
        -0.09844382107257843,
        0.05939893797039986
      ],
      [
        -0.26408571004867554,
        0.09510119259357452,
        -0.259267657995224,
        0.22550491988658905,
        -0.14353571832180023,
        -0.08645163476467133,
        0.3501182198524475,
        0.021689523011446
      ],
      [
        0.4084317088127136,
        -0.28983408212661743,
        0.40709489583969116,
        -0.0805341899394989,
        0.02256978675723076,
        0.05990276858210564,
        0.07622814923524857,
        -0.1344052106142044
      ],
      [
        0.21718353033065796,
        -0.2017347365617752,
        0.28875255584716797,
        -0.09880777448415756,
        0.1762913018465042,
        -0.357116162776947,
        0.004584604408591986,
        -0.053750839084386826
      ],
      [
        0.005060432478785515,
        -0.050583116710186005,
        -0.3652917742729187,
        0.17602457106113434,
        0.07754713296890259,
        0.07128182053565979,
        -0.2242373824119568,
        0.04959937930107117
      ],
      [
        -0.4706413447856903,
        0.04797681048512459,
        -0.3745056390762329,
        0.33008015155792236,
        -0.039748065173625946,
        -0.11846739053726196,
        0.01767749711871147,
        0.2153782993555069
      ],
      [
        -0.11851298063993454,
        0.335408091545105,
        -0.056192636489868164,
        0.2744429409503937,
        0.27444443106651306,
        -0.1476127654314041,
        -0.25046971440315247,
        -0.20218434929847717
      ],
      [
        -0.05944838374853134,
        -0.26352107524871826,
        -0.2567664086818695,
        -0.09931153059005737,
        0.08767358958721161,
        0.10073677450418472,
        -0.15555325150489807,
        0.09967952966690063
      ]
    ],
    "policy.mlp_extractor.policy_net.0.bias": [
      -0.043250542134046555,
      -0.07698825746774673,
      0.03183029219508171,
      -0.01699412800371647,
      0.07857604324817657,
      -0.16661277413368225,
      -0.021072866395115852,
      -0.15953272581100464,
      -0.07152997702360153,
      0.029708189889788628,
      -0.07333394140005112,
      0.06107419356703758,
      -0.14206047356128693,
      0.0833846852183342,
      0.17663784325122833,
      0.09624948352575302,
      0.19122947752475739,
      -0.11620456725358963,
      0.1019911840558052,
      0.019885296002030373,
      -0.15731333196163177,
      0.1571740210056305,
      0.15763340890407562,
      -0.1019851416349411,
      0.15993770956993103,
      0.15706674754619598,
      -0.15080338716506958,
      0.18143261969089508,
      0.07712458819150925,
      -0.006510809529572725,
      -0.08030063658952713,
      0.02490667998790741,
      0.11856408417224884,
      0.13650450110435486,
      -0.16437768936157227,
      0.009094588458538055,
      0.10449084639549255,
      -0.03388373553752899,
      0.040253520011901855,
      -0.06707672774791718,
      0.13000823557376862,
      -0.031007984653115273,
      0.06525715440511703,
      -0.09343629330396652,
      0.11680435389280319,
      -0.1161407083272934,
      0.07288827747106552,
      0.10194399207830429,
      -0.04676840826869011,
      -0.012918752618134022,
      0.02524169534444809,
      -0.16657136380672455,
      -0.16300176084041595,
      -0.1397317498922348,
      0.10377564281225204,
      0.019020676612854004,
      0.1606162041425705,
      -0.09111271053552628,
      -0.05787152424454689,
      -0.049546703696250916,
      0.04894232377409935,
      -0.07985927909612656,
      -0.07699723541736603,
      0.17942969501018524
    ],
    "policy.mlp_extractor.policy_net.2.weight": [
      [
        -0.635463535785675,
        -0.2302766591310501,
        0.06154949963092804,
        0.12253902107477188,
        0.0707850232720375,
        0.1909526139497757,
        -0.39311641454696655,
        -0.09447106719017029,
        0.2249017208814621,
        0.12186659872531891,
        -0.18441355228424072,
        -0.009844529442489147,
        -0.12889422476291656,
        -0.18919555842876434,
        0.3828054964542389,
        0.5288602113723755,
        0.3727395832538605,
        -0.021231019869446754,
        0.26641130447387695,
        0.3585033714771271,
        0.2083447426557541,
        0.2825288772583008,
        -0.2888351380825043,
        -0.5476687550544739,
        0.3922475576400757,
        -0.1251010298728943,
        -0.1088632196187973,
        0.29352015256881714,
        -0.4418812394142151,
        -0.06798836588859558,
        0.295673668384552,
        -0.17961658537387848,
        0.11358178406953812,
        0.17572949826717377,
        -0.2855609059333801,
        -0.09459777921438217,
        0.12063989788293839,
        0.032255034893751144,
        0.0842394158244133,
        0.1346174031496048,
        0.09443015605211258,
        0.18515591323375702,
        0.2865062654018402,
        -0.27440959215164185,
        0.6530264019966125,
        -0.2968779504299164,
        0.18174470961093903,
        0.16676749289035797,
        0.2721392810344696,
        0.036779291927814484,
        -0.028004178777337074,
        -0.6544336676597595,
        -0.13566294312477112,
        -0.28553080558776855,
        0.6283704042434692,
        0.35308417677879333,
        -0.34417638182640076,
        0.02641621045768261,
        0.11887739598751068,
        0.12855371832847595,
        -0.0032656779512763023,
        0.0058427113108336926,
        0.02200578711926937,
        0.19218263030052185
      ],
      [
        0.23967942595481873,
        -0.28296956419944763,
        -0.32096534967422485,
        0.13521862030029297,
        -0.08157382905483246,
        0.06620921194553375,
        0.33477744460105896,
        0.11742392927408218,
        -0.1549006849527359,
        0.13178598880767822,
        0.0338963083922863,
        0.0029311601538211107,
        0.16057273745536804,
        0.02219410426914692,
        -0.33702877163887024,
        -0.011952611617743969,
        -0.2877748906612396,
        -0.2594227194786072,
        -0.03627511113882065,
        -0.19698938727378845,
        -0.19156502187252045,
        -0.2845361530780792,
        0.11148565262556076,
        0.060027386993169785,
        -0.6348293423652649,
        -0.1943967044353485,
        0.36968860030174255,
        -0.19001105427742004,
        -0.2346682846546173,
        -0.25392892956733704,
        -0.1253889501094818,
        -0.012100271880626678,
        -0.07593686133623123,
        -0.17312727868556976,
        0.1841040700674057,
        0.16992779076099396,
        0.10324612259864807,
        0.2577269375324249,
        -0.045959118753671646,
        0.05749271810054779,
        -0.24405677616596222,
        -0.0305186677724123,
        0.21517054736614227,
        0.03439677134156227,
        0.10644161701202393,
        0.30022212862968445,
        0.033964596688747406,
        -0.12276843935251236,
        -0.01176904235035181,
        -0.13540981709957123,
        -0.08299482613801956,
        0.3604913651943207,
        0.09871875494718552,
        0.4006038010120392,
        -0.3684677481651306,
        0.1577209234237671,
        -0.19803571701049805,
        -0.2287169247865677,
        0.18546414375305176,
        0.07464054971933365,
        -0.3796807825565338,
        -0.11926919221878052,
        -0.10808875411748886,
        0.03176067769527435
      ],
      [
        0.0071532647125422955,
        -0.1995985060930252,
        0.12893804907798767,
        0.1917930543422699,
        0.26122644543647766,
        -0.14366313815116882,
        -0.20415014028549194,
        -0.427840918302536,
        -0.03374353051185608,
        -0.33089590072631836,
        -0.1735532134771347,
        -0.15506653487682343,
        0.14460539817810059,
        -0.017320740967988968,
        0.1652429848909378,
        0.08769366145133972,
        -0.050794441252946854,
        0.16481290757656097,
        -0.35715919733047485,
        -0.2287289947271347,
        -0.4169427156448364,
        0.08644922822713852,
        0.13645510375499725,
        -0.00743969576433301,
        0.24090920388698578,
        0.35527303814888,
        -0.514870285987854,
        -0.24108949303627014,
        -0.059427399188280106,
        0.13686908781528473,
        0.2658780813217163,
        -0.06171049922704697,
        0.21161934733390808,
        0.38561803102493286,
        -0.06432467699050903,
        -0.08083440363407135,
        -0.2466249316930771,
        0.018604116514325142,
        0.12620209157466888,
        -0.172150120139122,
        0.12676259875297546,
        -0.07665780931711197,
        -0.0030044792219996452,
        0.11211228370666504,
        0.5753366351127625,
        -0.326019287109375,
        0.048416610807180405,
        0.07516689598560333,
        0.36803552508354187,
        0.06604773551225662,
        0.048741407692432404,
        -0.1948588788509369,
        -0.253512978553772,
        -0.035277388989925385,
        0.3172537684440613,
        -0.13664200901985168,
        0.13524381816387177,
        -0.055947329849004745,
        -0.013800223357975483,
        0.07902071624994278,
        -0.11314567923545837,
        -0.4248839318752289,
        0.08870229870080948,
        -0.042963121086359024
      ],
      [
        0.016041206195950508,
        -0.14744436740875244,
        -0.07852261513471603,
        0.0673009380698204,
        0.12348003685474396,
        0.05486318841576576,
        0.5576912760734558,
        -0.019417420029640198,
        -0.5277382731437683,
        -0.13669416308403015,
        -0.1714545637369156,
        0.0396699383854866,
        -0.2800191044807434,
        0.28676122426986694,
        0.02935468964278698,
        -0.1645934283733368,
        0.3205471336841583,
        0.2867918014526367,
        0.14986984431743622,
        -0.4331618547439575,
        0.0029483463149517775,
        -0.06568365544080734,
        -0.006225672550499439,
        0.14949965476989746,
        0.06987342238426208,
        0.05614190548658371,
        0.14120568335056305,
        -0.013243721798062325,
        0.2236141413450241,
        0.5100403428077698,
        -0.19484058022499084,
        -0.11868064850568771,
        0.06494785845279694,
        -0.12739698588848114,
        -0.23194947838783264,
        -0.23365232348442078,
        0.00917705800384283,
        0.3781287670135498,
        0.03523164242506027,
        -0.3666168451309204,
        -0.22528637945652008,
        -0.16067299246788025,
        -0.006720046047121286,
        -0.010380187071859837,
        0.28245559334754944,
        -0.4773287773132324,
        0.20902448892593384,
        0.06341328471899033,
        0.16361196339130402,
        -0.07390227168798447,
        -0.3062693476676941,
        -0.3082117736339569,
        -0.08783823251724243,
        -0.12404549866914749,
        0.05760461091995239,
        -0.10253816843032837,
        0.05211741104722023,
        -0.08069081604480743,
        -0.03263823688030243,
        -0.26885277032852173,
        -0.2516022324562073,
        -0.038297783583402634,
        -0.02937869168817997,
        -0.0003182232612743974
      ],
      [
        0.05895468220114708,
        -0.23178628087043762,
        0.28366485238075256,
        0.11162862181663513,
        0.07821891456842422,
        -0.019536683335900307,
        0.10444984585046768,
        -0.15375711023807526,
        -0.0945206880569458,
        -0.09733667224645615,
        0.09702510386705399,
        0.13762007653713226,
        -0.040329836308956146,
        0.1808091700077057,
        0.3836434483528137,
        0.08810120820999146,
        -0.2089323103427887,
        -0.28694605827331543,
        0.037636350840330124,
        -0.0017137234099209309,
        0.1380937397480011,
        0.1043272316455841,
        0.11214351654052734,
        0.12849009037017822,
        0.3554675281047821,
        -0.14342883229255676,
        0.2751103639602661,
        -0.02633948065340519,
        -0.01698540709912777,
        -0.0898427739739418,
        0.019090618938207626,
        -0.19580820202827454,
        0.15442825853824615,
        0.06379007548093796,
        0.3903271555900574,
        0.245366632938385,
        -0.0038189259357750416,
        -0.07772103697061539,
        -0.011968030594289303,
        0.2010750025510788,
        0.02809317596256733,
        -0.19328951835632324,
        -0.029554560780525208,
        0.003520783968269825,
        0.44815221428871155,
        0.09965682029724121,
        0.2824198007583618,
        -0.015562786720693111,
        -0.37030112743377686,
        -0.1424560695886612,
        0.13480420410633087,
        0.1098271906375885,
        -0.08777395635843277,
        -0.2793227732181549,
        -0.014305139891803265,
        -0.053900714963674545,
        0.21954788267612457,
        0.18104219436645508,
        -0.10071863979101181,
        0.15518614649772644,
        -0.043122269213199615,
        -0.1354614794254303,
        -0.08166229724884033,
        0.07760967314243317
      ],
      [
        -0.062154415994882584,
        -0.13850316405296326,
        -0.10691647976636887,
        -0.048357799649238586,
        0.15012186765670776,
        0.01151201967149973,
        -0.11229502409696579,
        0.03790099546313286,
        -0.1615745574235916,
        -0.0010368454968556762,
        0.009950073435902596,
        -0.0356999933719635,
        -0.30625417828559875,
        -0.27219682931900024,
        0.18652136623859406,
        0.0920690968632698,
        -0.013456304557621479,
        0.02937432937324047,
        -0.20409424602985382,
        0.19903971254825592,
        -0.2738814651966095,
        0.08505520969629288,
        -0.2006353884935379,
        0.03372975438833237,
        0.1462600976228714,
        0.22115181386470795,
        -0.263506144285202,
        -0.05851854383945465,
        -0.06607166677713394,
        -0.15955694019794464,
        0.37051305174827576,
        0.22504232823848724,
        -0.014736220240592957,
        0.23750896751880646,
        0.013757050037384033,
        -0.173845574259758,
        -0.0019996510818600655,
        -0.2649987041950226,
        -0.028815858066082,
        -0.26501837372779846,
        0.01270727626979351,
        -0.22958756983280182,
        0.08538245409727097,
        0.10666638612747192,
        0.2339530885219574,
        -0.27531927824020386,
        0.29013490676879883,
        0.16780808568000793,
        -0.6026203036308289,
        -0.05817130208015442,
        -0.22761692106723785,
        -0.0680234283208847,
        0.2563641369342804,
        0.033295080065727234,
        0.10862515866756439,
        0.43099328875541687,
        -0.22467894852161407,
        0.12318811565637589,
        -0.05661441758275032,
        -0.4754887819290161,
        0.12584169209003448,
        0.005866370163857937,
        0.10041680186986923,
        -0.002736931201070547
      ],
      [
        -0.19835849106311798,
        0.12171429395675659,
        -0.2566777169704437,
        -0.7403159141540527,
        0.13175635039806366,
        0.4996902346611023,
        -0.035783980041742325,
        0.41669103503227234,
        -0.7416322231292725,
        0.006522573530673981,
        -0.5126166343688965,
        0.20350712537765503,
        0.029191358014941216,
        -0.11315935105085373,
        -0.05508549138903618,
        -0.39492714405059814,
        -0.376666396856308,
        0.20536305010318756,
        -0.18983779847621918,
        -0.11108659952878952,
        -0.42889103293418884,
        0.35861125588417053,
        -0.3173445463180542,
        0.2859196662902832,
        0.38786324858665466,
        0.02987224981188774,
        0.11277817189693451,
        -0.41407912969589233,
        0.8456920385360718,
        0.26179227232933044,
        -0.3170815408229828,
        0.18785515427589417,
        -0.268535852432251,
        -0.40140196681022644,
        -0.702731192111969,
        0.5090638995170593,
        -0.16612844169139862,
        0.820705235004425,
        1.194919466972351,
        -0.5570133328437805,
        0.2616461217403412,
        -0.09165582805871964,
        0.025634517893195152,
        -0.3875604569911957,
        0.17870192229747772,
        -0.23864144086837769,
        0.2825552523136139,
        0.37231385707855225,
        -0.3968656659126282,
        0.641998291015625,
        -0.7530873417854309,
        -0.1588052213191986,
        0.3549618422985077,
        0.2520662546157837,
        -0.04078876972198486,
        -0.4460589289665222,
        -0.07025356590747833,
        -0.31109142303466797,
        0.9722142815589905,
        0.4804341495037079,
        -0.01546358410269022,
        -0.5889929533004761,
        -0.273311972618103,
        -0.09724943339824677
      ],
      [
        -0.3486623466014862,
        0.2362890988588333,
        -0.03359723091125488,
        -0.24679125845432281,
        0.08974318951368332,
        -0.11862437427043915,
        0.36291491985321045,
        0.22127783298492432,
        -0.15422314405441284,
        0.0860535129904747,
        -0.5281070470809937,
        -0.12602898478507996,
        0.13949458301067352,
        0.15474292635917664,
        0.19755975902080536,
        -0.003975294530391693,
        -0.16590441763401031,
        0.20041072368621826,
        0.1480821818113327,
        -0.0031458742450922728,
        -0.09968972206115723,
        0.12570907175540924,
        0.1488415151834488,
        0.23319949209690094,
        0.2602614760398865,
        0.004181529860943556,
        -0.0396609753370285,
        0.007444161921739578,
        -0.028828589245676994,
        -0.11106786876916885,
        0.02082349732518196,
        0.009808316826820374,
        0.05303950607776642,
        0.10067062824964523,
        -0.23773474991321564,
        0.14021946489810944,
        -0.13473153114318848,
        -0.37390485405921936,
        -0.04069361835718155,
        -0.16923914849758148,
        -0.36158204078674316,
        -0.1319744884967804,
        -0.15751107037067413,
        0.04951696842908859,
        0.15892623364925385,
        0.037783749401569366,
        -0.062307145446538925,
        -0.4805826246738434,
        0.017941921949386597,
        -0.28628775477409363,
        0.03661326318979263,
        -0.06593610346317291,
        0.05653110146522522,
        0.3103690445423126,
        0.22276772558689117,
        -0.07658375054597855,
        -0.024043956771492958,
        -0.10697831958532333,
        -0.10678967833518982,
        0.033833105117082596,
        -0.19304025173187256,
        -0.1442878544330597,
        0.06190501153469086,
        -0.15005193650722504
      ],
      [
        -0.21956467628479004,
        0.06702558696269989,
        -0.1921444982290268,
        -0.01142863929271698,
        0.282414972782135,
        0.30022579431533813,
        -0.018608175218105316,
        -0.3708637058734894,
        0.37902334332466125,
        0.20171543955802917,
        -0.2634073793888092,
        -0.04591209441423416,
        -0.34508949518203735,
        0.12549524009227753,
        0.19935467839241028,
        0.7952680587768555,
        0.10658073425292969,
        -0.14575272798538208,
        0.11097408831119537,
        0.17452433705329895,
        -0.23182596266269684,
        0.02536708302795887,
        -0.05029560998082161,
        0.07065695524215698,
        0.26573026180267334,
        0.06579680740833282,
        -0.46713337302207947,
        0.0769059881567955,
        0.01044316403567791,
        0.3122040033340454,
        -0.09193858504295349,
        -0.14061538875102997,
        0.28818121552467346,
        0.16704493761062622,
        -0.05232886224985123,
        0.149291530251503,
        -0.11275094747543335,
        0.1617012470960617,
        -0.08414190262556076,
        -0.5087124705314636,
        0.2755015790462494,
        -0.0741792544722557,
        -0.08753269910812378,
        -0.18068359792232513,
        0.5130112171173096,
        -0.2159697711467743,
        0.0969758927822113,
        -0.06712278723716736,
        0.1140337735414505,
        -0.1762406826019287,
        0.046524807810783386,
        -0.256306916475296,
        -0.016515029594302177,
        -0.08227341622114182,
        0.11705382168292999,
        -0.15798643231391907,
        0.011293758638203144,
        0.16793662309646606,
        0.0038843180518597364,
        -0.1865944117307663,
        0.34637337923049927,
        0.18079760670661926,
        0.03997136279940605,
        0.3112528622150421
      ],
      [
        -0.29196104407310486,
        -0.25299984216690063,
        -0.00948774628341198,
        -0.3055569529533386,
        -0.20207807421684265,
        -0.055824246257543564,
        0.04662167653441429,
        -0.28293293714523315,
        -0.3214588761329651,
        -0.18583332002162933,
        -0.2532535493373871,
        -0.402488112449646,
        0.06217583641409874,
        0.3905177414417267,
        -0.06026102602481842,
        -0.10274559259414673,
        0.05760910362005234,
        0.0021854201331734657,
        -0.11226701736450195,
        0.3876538872718811,
        0.020437799394130707,
        -0.2394435852766037,
        -0.07247216254472733,
        0.2833523154258728,
        0.290971577167511,
        0.1179622933268547,
        -0.4670086205005646,
        -0.1445380002260208,
        0.03462221845984459,
        0.20061814785003662,
        -0.23021234571933746,
        0.02690056897699833,
        -0.16972559690475464,
        0.14660970866680145,
        0.019961345940828323,
        -0.23517446219921112,
        -0.18645831942558289,
        0.03318798542022705,
        0.19653214514255524,
        -0.15622171759605408,
        0.09246326982975006,
        0.08845002204179764,
        0.3582208454608917,
        -0.4130781590938568,
        0.4725481867790222,
        -0.577717125415802,
        -0.17569762468338013,
        -0.3285321891307831,
        0.16709277033805847,
        -0.19014161825180054,
        0.3153417110443115,
        -0.4129582941532135,
        -0.03365630283951759,
        -0.17245891690254211,
        -0.2657650411128998,
        0.06747804582118988,
        0.1790769100189209,
        -0.22067449986934662,
        -0.06134321540594101,
        -0.3581644892692566,
        -0.257892906665802,
        -0.15246814489364624,
        0.1020127534866333,
        0.3326167166233063
      ],
      [
        0.14327757060527802,
        0.034711096435785294,
        -0.007010033819824457,
        0.05293342471122742,
        0.013468807563185692,
        -0.2578771710395813,
        0.03945399075746536,
        0.00854957103729248,
        0.09685321152210236,
        0.12669922411441803,
        -0.20406325161457062,
        -0.11507638543844223,
        -0.17483823001384735,
        0.2860308587551117,
        0.04869304969906807,
        0.18928390741348267,
        0.09053968638181686,
        -0.039400625973939896,
        -0.03571932762861252,
        -0.3477822244167328,
        -0.37103337049484253,
        0.005505303852260113,
        0.1152811124920845,
        -0.32776451110839844,
        -0.030152615159749985,
        -0.07117730379104614,
        0.04448619857430458,
        -0.30164510011672974,
        0.2160041779279709,
        -0.31196242570877075,
        0.12322843074798584,
        -0.19355645775794983,
        -0.3001110553741455,
        0.2079523205757141,
        0.1894996166229248,
        -0.20860445499420166,
        0.1722155511379242,
        0.170867919921875,
        -0.019353637471795082,
        0.21818888187408447,
        0.15697138011455536,
        0.11257918179035187,
        -0.08671925961971283,
        -0.051972899585962296,
        -0.11240733414888382,
        -0.03240996226668358,
        -0.06814055144786835,
        -0.2734461724758148,
        -0.10839659720659256,
        -0.15234968066215515,
        0.11809513717889786,
        -0.09800460189580917,
        -0.1056588739156723,
        -0.016352197155356407,
        0.018397720530629158,
        0.21152955293655396,
        -0.1943742036819458,
        0.1889415681362152,
        0.15124036371707916,
        0.03847496956586838,
        0.3460722863674164,
        0.1355268806219101,
        -0.24347737431526184,
        -0.47374919056892395
      ],
      [
        0.22021043300628662,
        0.24901148676872253,
        -0.41085362434387207,
        -1.0601786375045776,
        0.22418034076690674,
        0.21976223587989807,
        -0.07736983150243759,
        -0.10152758657932281,
        -0.8523966670036316,
        0.3475629389286041,
        -0.34359288215637207,
        0.41939523816108704,
        -0.09433805197477341,
        -0.076080821454525,
        0.0376199446618557,
        -0.37627679109573364,
        -0.26208847761154175,
        0.15628111362457275,
        -0.22496668994426727,
        -0.2646632194519043,
        -0.06923536956310272,
        0.09533146023750305,
        -0.10506857186555862,
        -0.13748282194137573,
        0.37528809905052185,
        -0.325437068939209,
        0.021740814670920372,
        -0.06342583894729614,
        0.35581889748573303,
        0.20769940316677094,
        -0.5384199023246765,
        0.13700366020202637,
        -0.349721223115921,
        -0.20158185064792633,
        -0.4085642993450165,
        0.16289326548576355,
        0.19119322299957275,
        0.16433021426200867,
        0.8791332840919495,
        -0.5116044282913208,
        0.46597954630851746,
        -0.4323868751525879,
        0.23249293863773346,
        -0.31187596917152405,
        0.4125843346118927,
        -0.3672911822795868,
        0.18047575652599335,
        0.07376562058925629,
        0.21352998912334442,
        0.5262086391448975,
        -0.5749395489692688,
        -0.17900004982948303,
        0.5445698499679565,
        0.13891863822937012,
        0.23233014345169067,
        -0.533342182636261,
        -0.06156487017869949,
        -0.36116135120391846,
        0.45636650919914246,
        0.13638155162334442,
        0.015777282416820526,
        -0.6572751998901367,
        -0.18571026623249054,
        -0.03927965089678764
      ],
      [
        -0.13349120318889618,
        0.2919777035713196,
        -0.28369802236557007,
        -0.16835127770900726,
        0.024567831307649612,
        -0.19885720312595367,
        0.3404107391834259,
        -0.0379377119243145,
        -0.06527755409479141,
        -0.07822294533252716,
        0.1030946746468544,
        -0.02556747756898403,
        -0.13246946036815643,
        -0.015458188019692898,
        0.0600888691842556,
        -0.035022102296352386,
        0.011978447437286377,
        0.09907400608062744,
        -0.14345669746398926,
        0.10154973715543747,
        -0.307565838098526,
        -0.11195829510688782,
        0.04990465193986893,
        -0.10572797060012817,
        0.47129398584365845,
        0.2454158216714859,
        0.1900298148393631,
        0.04314521327614784,
        0.048443503677845,
        0.44439002871513367,
        -0.21079999208450317,
        -0.24100804328918457,
        -0.2853280007839203,
        -0.01427903026342392,
        -0.24626122415065765,
        -0.11413595080375671,
        -0.22279159724712372,
        -0.09239044785499573,
        0.12777043879032135,
        -0.5178910493850708,
        0.3836662173271179,
        0.11722308397293091,
        -0.182113915681839,
        -0.16304124891757965,
        0.3913120925426483,
        -0.6781452298164368,
        0.06221527233719826,
        0.058728959411382675,
        -0.30006101727485657,
        0.016485607251524925,
        0.1812480092048645,
        0.004654091317206621,
        -0.008540746755897999,
        0.07018804550170898,
        -0.05355554446578026,
        -0.13835635781288147,
        -0.19955365359783173,
        -0.07401205599308014,
        0.0708739161491394,
        0.27794501185417175,
        -0.4417722821235657,
        -0.2738066613674164,
        -0.4092964828014374,
        -0.05996003374457359
      ],
      [
        0.3003421127796173,
        0.0026222364977002144,
        -0.14070524275302887,
        0.3013615310192108,
        -0.16997428238391876,
        -0.2824980914592743,
        0.3170698285102844,
        0.09928325563669205,
        -0.10739010572433472,
        0.07290641963481903,
        0.3046867847442627,
        0.00878134649246931,
        0.12958556413650513,
        -0.039804209023714066,
        -0.3232811391353607,
        -0.09131795167922974,
        -0.39471617341041565,
        0.0451284758746624,
        -0.021903937682509422,
        0.1826939880847931,
        0.3069327175617218,
        -0.3688318133354187,
        -0.23461000621318817,
        -0.12453242391347885,
        -0.24681474268436432,
        -0.35210782289505005,
        -0.030188774690032005,
        -0.30252692103385925,
        0.020520057529211044,
        0.1113300696015358,
        -0.1588069051504135,
        0.23038077354431152,
        -0.16309551894664764,
        0.17976364493370056,
        0.06650136411190033,
        0.3049755096435547,
        0.0698297917842865,
        0.0670989379286766,
        -0.4892560541629791,
        0.2688583433628082,
        -0.40105241537094116,
        -0.23024900257587433,
        -0.1846991777420044,
        0.2977510690689087,
        -0.4663993716239929,
        0.29151731729507446,
        -0.09484925866127014,
        -0.12043986469507217,
        -0.24875913560390472,
        0.25429677963256836,
        -0.25827714800834656,
        -0.16260521113872528,
        -0.07757243514060974,
        0.05293434485793114,
        -0.34991177916526794,
        -0.23164449632167816,
        -0.09846141934394836,
        -0.1202491968870163,
        0.3102547228336334,
        0.2424042820930481,
        0.16873878240585327,
        -0.10405677556991577,
        -0.06737005710601807,
        -0.3083350658416748
      ],
      [
        0.048168331384658813,
        0.21444208920001984,
        0.12261668592691422,
        0.056617286056280136,
        0.08306191116571426,
        -0.20655445754528046,
        -0.017242571339011192,
        0.05725812166929245,
        0.07644582539796829,
        -0.2709980309009552,
        0.22839432954788208,
        -0.15819311141967773,
        0.170431986451149,
        0.21745458245277405,
        -0.06056995689868927,
        0.08119956403970718,
        -0.13036461174488068,
        0.27942705154418945,
        0.26779353618621826,
        0.0793139711022377,
        0.34282776713371277,
        -0.2120341807603836,
        -0.024614373221993446,
        0.3273758292198181,
        -0.18917153775691986,
        -0.2657020688056946,
        0.21256175637245178,
        -0.43854206800460815,
        0.2598547041416168,
        0.15634366869926453,
        -0.18516889214515686,
        0.09839902818202972,
        0.03688421472907066,
        -0.12928931415081024,
        0.12593108415603638,
        -0.22734087705612183,
        0.22830134630203247,
        -0.0530344657599926,
        0.11720556020736694,
        0.1068214401602745,
        0.03526489809155464,
        -0.1975785195827484,
        0.2823161780834198,
        0.15396277606487274,
        -0.08179967850446701,
        0.3567259609699249,
        -0.08592413365840912,
        0.37200191617012024,
        0.1185285747051239,
        -0.3262816369533539,
        -0.08645129948854446,
        0.35112595558166504,
        0.2575615644454956,
        0.08169310539960861,
        -0.20290324091911316,
        0.05447951331734657,
        -0.29747357964515686,
        -0.1985395848751068,
        0.03519591689109802,
        0.13065004348754883,
        -0.030352627858519554,
        0.03060900792479515,
        -0.08549079298973083,
        -0.3242579400539398
      ],
      [
        0.036989711225032806,
        0.08250552415847778,
        0.09948220103979111,
        0.05454934015870094,
        -0.4249127209186554,
        0.26877710223197937,
        -0.159284770488739,
        0.0026423255912959576,
        -0.16498228907585144,
        -0.2884148359298706,
        -0.3376978039741516,
        0.1431119441986084,
        0.02126454748213291,
        -0.18179719150066376,
        -0.008764520287513733,
        0.13857519626617432,
        0.04333910718560219,
        -0.032505594193935394,
        -0.34477201104164124,
        -0.031094126403331757,
        0.020357079803943634,
        0.4810663163661957,
        -0.22860118746757507,
        -0.07350382208824158,
        -0.015466546639800072,
        -0.14952822029590607,
        -0.2513725161552429,
        0.19498667120933533,
        0.05729683116078377,
        0.19670403003692627,
        0.05526871979236603,
        -0.3129349946975708,
        0.09027338773012161,
        0.2518412470817566,
        0.0811949372291565,
        0.02734152227640152,
        0.1669783741235733,
        -0.14049042761325836,
        -0.01600513979792595,
        0.19711953401565552,
        0.0015198587207123637,
        -0.1727210432291031,
        -0.11111559718847275,
        -0.3599969446659088,
        0.08534654974937439,
        0.04064985364675522,
        -0.08936340361833572,
        0.24628297984600067,
        -0.25017791986465454,
        0.022043505683541298,
        0.0067254300229251385,
        0.10048281401395798,
        -0.10795392096042633,
        0.33702877163887024,
        0.06663455814123154,
        -0.12373292446136475,
        -0.10288354754447937,
        -0.2229277491569519,
        0.08646794408559799,
        -0.20757873356342316,
        0.05590083822607994,
        0.16102014482021332,
        -0.38840407133102417,
        -0.12996222078800201
      ],
      [
        -0.09055068343877792,
        0.04560515284538269,
        -0.12754225730895996,
        -0.24126632511615753,
        -0.11617225408554077,
        0.373394638299942,
        -0.20551912486553192,
        0.012699025683104992,
        -0.12364662438631058,
        0.08175311237573624,
        0.3718506693840027,
        -0.31672048568725586,
        0.12843000888824463,
        -0.04578133299946785,
        -0.23534102737903595,
        0.08419249951839447,
        -0.07766041904687881,
        -0.18434740602970123,
        0.13389453291893005,
        -0.29785481095314026,
        0.18823692202568054,
        -0.11325615644454956,
        -0.1314648538827896,
        -0.17157837748527527,
        -0.13459299504756927,
        -0.2475769817829132,
        0.4864257872104645,
        -0.2573678195476532,
        -0.08590425550937653,
        0.14942540228366852,
        0.2719556391239166,
        0.11723866313695908,
        0.3650885820388794,
        0.3228096663951874,
        0.20815041661262512,
        -0.15809676051139832,
        0.11810064315795898,
        -0.26702120900154114,
        -0.3404620885848999,
        0.24994124472141266,
        -0.15807317197322845,
        0.28572654724121094,
        -0.10130659490823746,
        0.14484500885009766,
        -0.6976568102836609,
        0.3346326947212219,
        0.2556649148464203,
        -0.08479231595993042,
        0.10888922959566116,
        -0.30603885650634766,
        0.051355719566345215,
        0.11657565832138062,
        0.011236462742090225,
        0.19449414312839508,
        -0.45481598377227783,
        0.0581032820045948,
        0.33903783559799194,
        0.18306806683540344,
        0.16096912324428558,
        0.08834493905305862,
        -0.19512268900871277,
        -0.05958018824458122,
        0.23019464313983917,
        -0.13159707188606262
      ],
      [
        0.167903870344162,
        -0.07932934910058975,
        -0.03617323935031891,
        -0.014896811917424202,
        -0.14185377955436707,
        -0.07927872240543365,
        0.10318733006715775,
        0.19200214743614197,
        0.23878400027751923,
        -0.10844193398952484,
        -0.14158375561237335,
        -0.3297717273235321,
        0.005030093714594841,
        -0.17362703382968903,
        -0.05060872063040733,
        -0.4662069082260132,
        -0.2199459969997406,
        0.12498625367879868,
        0.05595073103904724,
        -0.09811277687549591,
        0.29804733395576477,
        0.007279949262738228,
        -0.3158032298088074,
        -0.03321489319205284,
        -0.0849904865026474,
        -0.1484755128622055,
        0.32457566261291504,
        -0.13092449307441711,
        -0.17222902178764343,
        0.02549578621983528,
        -0.07245254516601562,
        0.0002215968124801293,
        -0.14290989935398102,
        -0.03730616346001625,
        -0.11860454082489014,
        0.1274430751800537,
        0.23082304000854492,
        0.2841513752937317,
        -0.22295953333377838,
        0.24238452315330505,
        0.00798688642680645,
        0.0026919597294181585,
        -0.20982816815376282,
        0.04149201884865761,
        -0.18323452770709991,
        0.38458868861198425,
        0.05219891294836998,
        0.04725058376789093,
        0.18820828199386597,
        0.24580790102481842,
        -0.0642380490899086,
        0.42672696709632874,
        0.42195478081703186,
        0.3899160921573639,
        -0.5056437253952026,
        0.08202710747718811,
        -0.010684484615921974,
        0.36800679564476013,
        -0.06599150598049164,
        0.032882291823625565,
        0.406220018863678,
        -0.39074254035949707,
        -0.13131825625896454,
        0.028915343806147575
      ],
      [
        0.14271627366542816,
        -0.15965282917022705,
        -0.05926280841231346,
        -0.193519726395607,
        0.03869333490729332,
        0.23258621990680695,
        -0.07004210352897644,
        -0.14988571405410767,
        0.12250877171754837,
        -0.14815957844257355,
        -0.2112763524055481,
        0.22175610065460205,
        -0.11310633271932602,
        -0.16189414262771606,
        -0.16326715052127838,
        -0.024068200960755348,
        -0.13027803599834442,
        0.18127089738845825,
        -0.08742838352918625,
        -0.3258300721645355,
        0.15072397887706757,
        -0.3261122703552246,
        -0.2894689440727234,
        -0.005571817047894001,
        0.05999109521508217,
        -0.06887327134609222,
        0.32383590936660767,
        -0.21019113063812256,
        -0.16233497858047485,
        -0.17573514580726624,
        0.1357516348361969,
        -0.15653443336486816,
        -0.49312224984169006,
        -0.40556883811950684,
        -0.03534366562962532,
        0.38548555970191956,
        0.20323120057582855,
        -0.11658782511949539,
        -0.2201996147632599,
        0.15726684033870697,
        -0.11439470946788788,
        -0.31490254402160645,
        -0.11272609978914261,
        0.3031269311904907,
        -0.5003188252449036,
        0.19901609420776367,
        -0.1701686680316925,
        0.19559542834758759,
        -0.003602379932999611,
        -0.09112057834863663,
        0.11756262183189392,
        0.12133757025003433,
        -0.09432706981897354,
        -0.11834891885519028,
        -0.3915572464466095,
        0.08870642632246017,
        -0.2153894603252411,
        -0.17148450016975403,
        0.005387048702687025,
        0.07778327167034149,
        -0.06939076632261276,
        -0.004110897425562143,
        0.1237095519900322,
        -0.16620074212551117
      ],
      [
        0.11108889430761337,
        0.013837641105055809,
        -0.31750190258026123,
        0.22753870487213135,
        0.5509418249130249,
        -0.08297374099493027,
        -0.19631533324718475,
        0.004399657715111971,
        0.2696222960948944,
        -0.18259499967098236,
        0.140841543674469,
        0.08777317404747009,
        0.3919216990470886,
        -0.1704404354095459,
        -0.07549823820590973,
        -0.018507855013012886,
        0.2086726874113083,
        -0.2625182569026947,
        -0.11345420032739639,
        0.0856989175081253,
        0.3483582139015198,
        0.00043348234612494707,
        -0.1426306813955307,
        0.06551321595907211,
        -0.3361285626888275,
        -0.03248400241136551,
        0.13986845314502716,
        0.020610012114048004,
        -0.23578116297721863,
        -0.3097415268421173,
        0.384615033864975,
        -0.20190435647964478,
        0.061214759945869446,
        0.2171383500099182,
        0.13824452459812164,
        -0.11566567420959473,
        0.28902697563171387,
        -0.11263057589530945,
        -0.31117692589759827,
        0.0697624608874321,
        -0.2547517716884613,
        0.1340455561876297,
        0.12083568423986435,
        -0.07858342677354813,
        -0.29173243045806885,
        0.3064379096031189,
        -0.36869579553604126,
        0.08607768267393112,
        -0.12188646197319031,
        -0.21192920207977295,
        -0.22997960448265076,
        -0.1601993590593338,
        0.0324615016579628,
        -0.00471400935202837,
        -0.1523665189743042,
        -0.05456570163369179,
        0.23966747522354126,
        0.3786166310310364,
        -0.33205434679985046,
        0.23578833043575287,
        0.07551102340221405,
        0.26128438115119934,
        -0.27646511793136597,
        0.026806047186255455
      ],
      [
        -0.12939739227294922,
        -0.194684699177742,
        -0.15381167829036713,
        0.3424495756626129,
        0.009316330775618553,
        -0.2669801414012909,
        -0.03304434195160866,
        0.010960981249809265,
        -0.006674117874354124,
        -0.0511135533452034,
        -0.31960034370422363,
        -0.11163836717605591,
        0.22330693900585175,
        0.015617783181369305,
        0.5008352398872375,
        -0.003022759687155485,
        0.12454871088266373,
        -0.2540239989757538,
        -0.17788785696029663,
        0.14254453778266907,
        -0.4516139030456543,
        -0.07617717981338501,
        -0.3506160080432892,
        -0.1283700168132782,
        0.1965884119272232,
        -0.11075213551521301,
        -0.13494765758514404,
        0.2448464184999466,
        0.2651275396347046,
        0.22231151163578033,
        -0.2733515501022339,
        0.00412784656509757,
        0.21695740520954132,
        -0.030324960127472878,
        -0.14078429341316223,
        -0.03665991872549057,
        0.0003071918908972293,
        -0.19660452008247375,
        0.3891831636428833,
        -0.389824777841568,
        0.11212463676929474,
        -0.22999411821365356,
        0.31446927785873413,
        -0.2084358185529709,
        -0.07293466478586197,
        -0.45033299922943115,
        0.2984634339809418,
        -0.18761290609836578,
        0.17920121550559998,
        -0.18240834772586823,
        0.14693647623062134,
        -0.03848514333367348,
        -0.26928696036338806,
        -0.08995562046766281,
        -0.015699312090873718,
        -0.08828281611204147,
        0.03770846500992775,
        0.06579019129276276,
        -0.20823536813259125,
        -0.05920407176017761,
        -0.07781833410263062,
        -0.017863834276795387,
        0.30512189865112305,
        -0.06815055757761002
      ],
      [
        -0.27177518606185913,
        -0.3555479347705841,
        0.11487962305545807,
        -0.07227067649364471,
        0.14407190680503845,
        -0.14642129838466644,
        0.1329648345708847,
        -0.10587752610445023,
        0.24944080412387848,
        0.1219717413187027,
        -0.0849393904209137,
        -0.01958947628736496,
        0.03263724222779274,
        -0.22173380851745605,
        -0.10849563777446747,
        -0.05506093427538872,
        -0.04054047167301178,
        0.1510966271162033,
        0.036733824759721756,
        -0.16066907346248627,
        -0.017843160778284073,
        0.0004686451284214854,
        0.23456808924674988,
        -0.26947957277297974,
        0.1784353405237198,
        0.04067430645227432,
        0.09704700857400894,
        0.11210966855287552,
        -0.08183763176202774,
        0.22725532948970795,
        -0.085395447909832,
        0.279110848903656,
        -0.17679688334465027,
        -0.0693676620721817,
        0.43358367681503296,
        -0.20997755229473114,
        0.0009813731303438544,
        0.3469724655151367,
        -0.1178702786564827,
        -0.02992418222129345,
        -0.20529578626155853,
        0.20171290636062622,
        0.3171106278896332,
        -0.019054122269153595,
        -0.13512414693832397,
        -0.055217381566762924,
        0.08732036501169205,
        -0.010822619311511517,
        -0.23458293080329895,
        -0.28933942317962646,
        -0.016515864059329033,
        0.16622303426265717,
        -0.08367637544870377,
        0.15705552697181702,
        0.06215768679976463,
        -0.41018688678741455,
        0.09905102849006653,
        -0.2906962037086487,
        -0.19631154835224152,
        -0.001199695048853755,
        0.21426603198051453,
        -0.09765531867742538,
        -0.04314018040895462,
        -0.023256691172719002
      ],
      [
        0.33233147859573364,
        -0.07308446615934372,
        0.19556613266468048,
        0.20650556683540344,
        0.3883713185787201,
        -0.03980474919080734,
        -0.15751783549785614,
        0.005145640578120947,
        0.49694597721099854,
        -0.1579732596874237,
        0.05199320241808891,
        0.06833229213953018,
        -0.12666913866996765,
        0.2282789647579193,
        -0.4862178862094879,
        0.24821874499320984,
        -0.07379289716482162,
        -0.35068005323410034,
        0.2510809302330017,
        -0.03668010234832764,
        -0.1635829210281372,
        0.21307355165481567,
        -0.0151884276419878,
        0.04001865163445473,
        -0.24812902510166168,
        0.18013282120227814,
        0.053831133991479874,
        0.49247315526008606,
        -0.13627183437347412,
        0.24934086203575134,
        0.04844869300723076,
        -0.08362472057342529,
        -0.257703572511673,
        0.258271187543869,
        -0.20193004608154297,
        -0.12037230283021927,
        -0.004050740040838718,
        -0.28530195355415344,
        -0.24660199880599976,
        0.40526139736175537,
        -0.17102855443954468,
        -0.022316552698612213,
        0.19892065227031708,
        0.17884761095046997,
        -0.005382135510444641,
        -0.023341909050941467,
        -0.024005509912967682,
        -0.0871603861451149,
        -0.06214219704270363,
        -0.3802952766418457,
        0.16480162739753723,
        0.09401646256446838,
        -0.18248552083969116,
        -0.1044401004910469,
        0.028356332331895828,
        0.2665519714355469,
        -0.013657738454639912,
        -0.002366381697356701,
        0.06532304733991623,
        0.17913998663425446,
        0.23380573093891144,
        -0.07494159042835236,
        0.02526550181210041,
        0.1239679604768753
      ],
      [
        0.5228925347328186,
        0.2558858096599579,
        0.1158905178308487,
        0.10291479527950287,
        0.2654224634170532,
        0.27752113342285156,
        -0.23949982225894928,
        0.46238988637924194,
        0.13425438106060028,
        0.21142339706420898,
        0.15274296700954437,
        -0.2325209677219391,
        -0.10084891319274902,
        -0.16884779930114746,
        -0.3145173192024231,
        -0.5857692956924438,
        0.01643616519868374,
        0.07488696277141571,
        0.052628304809331894,
        -0.3299283981323242,
        0.2226196676492691,
        0.09842415153980255,
        -0.7115150690078735,
        0.32653486728668213,
        -0.48383381962776184,
        -0.5198222994804382,
        0.5384750962257385,
        -0.4932277202606201,
        -0.1997005045413971,
        -0.11863000690937042,
        -0.12334068864583969,
        0.15973535180091858,
        -0.1378021389245987,
        -0.23149414360523224,
        0.4526033401489258,
        0.23597434163093567,
        0.11859934777021408,
        0.4297198951244354,
        -0.517383873462677,
        0.34629547595977783,
        -0.08529459685087204,
        0.042786937206983566,
        -0.3181043565273285,
        0.44650375843048096,
        -0.41735851764678955,
        0.28879082202911377,
        -0.23891544342041016,
        -0.3213753402233124,
        -0.2956255376338959,
        0.22052381932735443,
        0.008152333088219166,
        0.449324369430542,
        0.3891873359680176,
        0.30782467126846313,
        -0.01120710838586092,
        -0.13479048013687134,
        -0.4614666700363159,
        -0.23183929920196533,
        -0.08174198120832443,
        0.42308852076530457,
        -0.25172874331474304,
        0.09779676049947739,
        0.10481103509664536,
        -0.23466290533542633
      ],
      [
        -0.014661578461527824,
        -0.07442028820514679,
        0.03103751689195633,
        -0.17940230667591095,
        -0.27322912216186523,
        -0.013834021985530853,
        0.3052944242954254,
        -0.3075030744075775,
        0.009786495007574558,
        0.15668003261089325,
        0.08115421235561371,
        -0.0745479017496109,
        0.1432589292526245,
        0.2511464059352875,
        0.0032468957360833883,
        0.040545638650655746,
        0.2346697598695755,
        -0.0030580933671444654,
        0.09375599026679993,
        -0.07532236725091934,
        0.0817604586482048,
        0.3060901463031769,
        -0.36923182010650635,
        -0.1024269089102745,
        -0.1500004380941391,
        0.07849041372537613,
        -0.22355873882770538,
        0.0181046761572361,
        0.12841005623340607,
        -0.06765872240066528,
        0.014866380020976067,
        0.4408774673938751,
        -0.0708896666765213,
        -0.4250437617301941,
        0.2068772166967392,
        -0.07344719767570496,
        0.0075599029660224915,
        -0.1995118260383606,
        -0.33269184827804565,
        -0.13261140882968903,
        -0.032078925520181656,
        0.0012879699934273958,
        0.2191794365644455,
        -0.029593370854854584,
        0.17263014614582062,
        -0.10899211466312408,
        -0.05364330857992172,
        0.08581177145242691,
        0.029751542955636978,
        0.018245063722133636,
        0.011179767549037933,
        0.07638496905565262,
        0.201196551322937,
        -0.04528738930821419,
        -0.036222875118255615,
        -0.01919613964855671,
        0.3133491277694702,
        0.22752688825130463,
        0.1333455741405487,
        0.2854495048522949,
        -0.2690458595752716,
        -0.1158975288271904,
        0.16237302124500275,
        -0.28659096360206604
      ],
      [
        -0.18892398476600647,
        0.10500704497098923,
        -0.1118268221616745,
        -0.09583017975091934,
        0.003180215135216713,
        0.0740562304854393,
        0.07927995175123215,
        -0.015501352958381176,
        -0.08779770135879517,
        0.3904639184474945,
        0.02524847909808159,
        0.19070085883140564,
        0.06597708910703659,
        0.15088512003421783,
        -0.011559129692614079,
        -0.2573593854904175,
        0.11279438436031342,
        0.05458469316363335,
        -0.1301499903202057,
        0.05353536829352379,
        -0.022806253284215927,
        -0.14543980360031128,
        -0.24688737094402313,
        -0.10643653571605682,
        0.3533821403980255,
        0.14391584694385529,
        -0.47706881165504456,
        0.09433583915233612,
        0.31264910101890564,
        0.16925513744354248,
        0.031173087656497955,
        -0.296487420797348,
        0.3526894748210907,
        -0.15273669362068176,
        0.3022535443305969,
        0.02219901606440544,
        0.002950672060251236,
        -0.05690142884850502,
        0.5400095582008362,
        -0.2138672024011612,
        -0.5459288358688354,
        0.11990302801132202,
        -0.21134106814861298,
        0.06111857295036316,
        0.2967652678489685,
        -0.3283896744251251,
        -0.019124027341604233,
        0.14575208723545074,
        0.17642837762832642,
        -0.0747242420911789,
        0.05941261723637581,
        0.014780808240175247,
        0.26038455963134766,
        -0.004286957439035177,
        0.020090408623218536,
        0.18138261139392853,
        -0.18659774959087372,
        -0.12970978021621704,
        0.09317921102046967,
        0.013874351978302002,
        0.10997719317674637,
        -0.3840749263763428,
        -0.03894798830151558,
        0.09293102473020554
      ],
      [
        -0.3825320899486542,
        -0.16327881813049316,
        0.15137505531311035,
        0.0052457102574408054,
        0.235581174492836,
        0.12612177431583405,
        0.20678743720054626,
        -0.21577107906341553,
        -0.4399902820587158,
        0.0850125402212143,
        0.2502223551273346,
        -0.024121949449181557,
        0.26022517681121826,
        0.05688758194446564,
        0.10396895557641983,
        -0.16966277360916138,
        -0.10902749747037888,
        -0.26430854201316833,
        -0.19070805609226227,
        -0.1840929090976715,
        0.3977218270301819,
        0.19359195232391357,
        -0.27653050422668457,
        0.006560164503753185,
        -0.12173360586166382,
        0.18882429599761963,
        -0.10728622227907181,
        -0.2562786638736725,
        0.16340336203575134,
        0.2589598298072815,
        -0.2599378526210785,
        -0.03202342614531517,
        -0.3026205003261566,
        -0.23830386996269226,
        -0.05115881189703941,
        0.02453022077679634,
        -0.21009904146194458,
        -0.25694891810417175,
        0.3974067270755768,
        -0.1158832311630249,
        0.14866991341114044,
        0.1752588003873825,
        -0.29085755348205566,
        -0.26981157064437866,
        -0.01920134760439396,
        0.1114017516374588,
        -0.09830867499113083,
        -0.28345218300819397,
        -0.02745484933257103,
        -0.09526537358760834,
        -0.28884270787239075,
        0.030261561274528503,
        -0.00674403877928853,
        0.1560215950012207,
        -0.03101797215640545,
        -0.02601105161011219,
        -0.16107869148254395,
        0.003662396688014269,
        0.06619911640882492,
        -0.22185684740543365,
        0.1243702694773674,
        -0.1808318793773651,
        0.26975297927856445,
        -0.03995383158326149
      ],
      [
        -0.058418456465005875,
        -0.09341941773891449,
        -0.11266007274389267,
        0.007123482413589954,
        0.11589495837688446,
        -0.23312556743621826,
        0.09553522616624832,
        0.18361425399780273,
        0.0669802874326706,
        -0.19049598276615143,
        -0.1691204011440277,
        -0.11400415748357773,
        -0.2492094337940216,
        -0.21611417829990387,
        0.07989257574081421,
        0.21317730844020844,
        -0.2725788652896881,
        -0.3550751805305481,
        -0.004530392587184906,
        -0.1046978235244751,
        0.06495076417922974,
        0.35836923122406006,
        0.02588191069662571,
        -0.4194963574409485,
        0.1701921671628952,
        -0.17577402293682098,
        -0.4347580373287201,
        -0.2967149019241333,
        0.19601891934871674,
        -0.11743927001953125,
        -0.02311605028808117,
        -0.16023273766040802,
        0.07536256313323975,
        0.02979089505970478,
        -0.06995610892772675,
        0.15714848041534424,
        -0.22198371589183807,
        -0.1600448340177536,
        0.16475024819374084,
        -0.22085683047771454,
        -0.027771422639489174,
        0.1781327724456787,
        -0.028025493025779724,
        -0.0756777748465538,
        0.04844232276082039,
        -0.3727668523788452,
        -0.10067713260650635,
        0.4438435137271881,
        0.10294242203235626,
        -0.1496257781982422,
        0.2682670056819916,
        -0.15626774728298187,
        0.1919451653957367,
        -0.21715494990348816,
        0.4460713267326355,
        0.05362557992339134,
        0.16698172688484192,
        -0.0124805374071002,
        -0.0749758929014206,
        -0.2122257798910141,
        -0.13894669711589813,
        0.14584749937057495,
        0.011584317311644554,
        0.375643789768219
      ],
      [
        0.39453837275505066,
        0.4319249391555786,
        0.18776512145996094,
        0.0008389144786633551,
        -0.10996536165475845,
        -0.1449671983718872,
        -0.11681979894638062,
        0.2437591850757599,
        0.06666223704814911,
        0.2911107540130615,
        -0.0017542901914566755,
        -0.25340673327445984,
        0.18952003121376038,
        0.026476411148905754,
        -0.026489736512303352,
        0.36499282717704773,
        0.19873417913913727,
        0.023069661110639572,
        -0.3708842396736145,
        0.1957293450832367,
        0.29987379908561707,
        0.14756445586681366,
        -0.2317565232515335,
        -0.3044579327106476,
        -0.07018069922924042,
        0.19930553436279297,
        0.38462740182876587,
        -0.13352467119693756,
        -0.2191723883152008,
        -0.09169240295886993,
        0.28657540678977966,
        0.0266792681068182,
        -0.15095293521881104,
        0.03858692944049835,
        -0.014520630240440369,
        0.10131534188985825,
        0.07636596262454987,
        0.13276775181293488,
        0.013494528830051422,
        0.09556923061609268,
        -0.15896449983119965,
        -0.0720418393611908,
        -0.047106605023145676,
        -0.1500483751296997,
        0.02821643464267254,
        0.2381753772497177,
        0.05332476273179054,
        0.20402316749095917,
        0.04224212095141411,
        -0.2890898883342743,
        -0.15311533212661743,
        0.09823232889175415,
        -0.05802003666758537,
        -0.062292348593473434,
        -0.016469184309244156,
        -0.09031052142381668,
        0.21855652332305908,
        -0.1983393132686615,
        -0.06665676832199097,
        -0.13107329607009888,
        0.10703041404485703,
        0.021562764421105385,
        0.29976120591163635,
        0.19747664034366608
      ],
      [
        -0.13467594981193542,
        -0.04142084717750549,
        -0.23740142583847046,
        0.10618098080158234,
        -0.11687277257442474,
        -0.23726095259189606,
        0.016822785139083862,
        -0.45283618569374084,
        0.1571234166622162,
        0.3127489387989044,
        0.18531370162963867,
        -0.13063743710517883,
        -0.2245704084634781,
        -0.10604444146156311,
        -0.10611500591039658,
        0.06506181508302689,
        0.1246812492609024,
        0.16389530897140503,
        0.13668255507946014,
        -0.19893194735050201,
        0.24624885618686676,
        0.044709935784339905,
        -0.12876372039318085,
        -0.019832074642181396,
        0.161830872297287,
        0.009971491061151028,
        0.002266469644382596,
        0.05289323627948761,
        0.1747906357049942,
        0.14712534844875336,
        0.27620789408683777,
        -0.09126685559749603,
        0.16360969841480255,
        0.11618747562170029,
        -0.2076660841703415,
        0.2662850022315979,
        0.10081282258033752,
        -0.04835521802306175,
        0.3125254213809967,
        0.05585891753435135,
        0.18551582098007202,
        0.06900931894779205,
        0.3395247459411621,
        0.14302590489387512,
        0.3005123734474182,
        -0.029352940618991852,
        -0.16141045093536377,
        -0.14804914593696594,
        -0.13009250164031982,
        0.2226533442735672,
        0.06595075875520706,
        -0.07554826885461807,
        -0.18620909750461578,
        0.32022523880004883,
        0.015969015657901764,
        0.24218539893627167,
        0.1590060442686081,
        -0.3216424286365509,
        -0.33998653292655945,
        0.029735296964645386,
        -0.11535853892564774,
        0.24913336336612701,
        0.10312125086784363,
        0.017585722729563713
      ],
      [
        -0.2829676568508148,
        -0.10837621241807938,
        -0.0194795411080122,
        0.05645947903394699,
        0.13125720620155334,
        0.19218142330646515,
        -0.15023796260356903,
        -0.04713470861315727,
        -0.2250126153230667,
        -0.21087747812271118,
        0.32446199655532837,
        -0.03580871596932411,
        0.08904280513525009,
        0.11115701496601105,
        0.2008492797613144,
        0.2929384708404541,
        0.26485249400138855,
        -0.05513636767864227,
        -0.15905971825122833,
        0.1202135682106018,
        -0.05695447325706482,
        -0.0556660071015358,
        -0.11240622401237488,
        -0.1526612788438797,
        0.03399370238184929,
        -0.23351190984249115,
        0.2657695412635803,
        0.04893772304058075,
        -0.18227124214172363,
        -0.1023452952504158,
        0.029076801612973213,
        0.14256681501865387,
        -0.08505615592002869,
        0.2254241406917572,
        -0.04450060799717903,
        -0.028626132756471634,
        -0.1246781125664711,
        -0.00048633315600454807,
        0.2139301598072052,
        -0.14936186373233795,
        -0.3455568552017212,
        -0.17266248166561127,
        -0.21093514561653137,
        -0.28765633702278137,
        -0.2135474979877472,
        0.16960005462169647,
        -0.30243170261383057,
        0.10718370974063873,
        0.0461345873773098,
        0.46477222442626953,
        0.22730059921741486,
        0.18084950745105743,
        0.47044602036476135,
        0.011603494174778461,
        0.22225673496723175,
        0.10731284320354462,
        0.2863028049468994,
        -0.304099977016449,
        0.07831075042486191,
        0.041393768042325974,
        0.3087570071220398,
        -0.005739544052630663,
        0.06818253546953201,
        -0.04722769185900688
      ],
      [
        0.012862385250627995,
        0.016812758520245552,
        0.02171238325536251,
        0.03231179714202881,
        -0.27061694860458374,
        -0.030177392065525055,
        0.2374631017446518,
        -0.008024713955819607,
        0.28837037086486816,
        -0.3420162498950958,
        0.21514645218849182,
        -0.020836373791098595,
        -0.035037945955991745,
        -0.10901544243097305,
        -0.14115145802497864,
        -0.17613554000854492,
        -0.24907110631465912,
        0.14276963472366333,
        -0.1637902408838272,
        -0.19734591245651245,
        0.0757121592760086,
        0.15904133021831512,
        0.025435155257582664,
        0.07032185047864914,
        0.17120768129825592,
        -0.02024073712527752,
        -0.0002359954232815653,
        -0.10939325392246246,
        -0.21071204543113708,
        0.09467437863349915,
        -0.09123668819665909,
        0.16406415402889252,
        0.29896244406700134,
        -0.13925357162952423,
        0.031183136627078056,
        -0.18496528267860413,
        0.4549369812011719,
        0.01398894190788269,
        0.27592363953590393,
        -0.4611574709415436,
        -0.07544837892055511,
        -0.2255891114473343,
        -0.08400830626487732,
        -0.04641556367278099,
        0.08735235780477524,
        -0.21493807435035706,
        -0.17265792191028595,
        -0.6321430206298828,
        -0.051953885704278946,
        -0.18862701952457428,
        -0.07570336759090424,
        0.08841948956251144,
        -0.024526581168174744,
        -0.17053404450416565,
        0.1344650536775589,
        0.2009449005126953,
        0.10400821268558502,
        0.000976725947111845,
        0.34984251856803894,
        0.09128536283969879,
        0.04315751791000366,
        0.09648250788450241,
        0.07090822607278824,
        0.05715635418891907
      ],
      [
        0.12873701751232147,
        -0.0331680104136467,
        0.19789209961891174,
        -0.20271334052085876,
        -0.19581323862075806,
        0.033498864620923996,
        0.19446587562561035,
        0.010907337069511414,
        0.05337565764784813,
        -0.08188701421022415,
        -0.001073471619747579,
        0.2164168506860733,
        0.4655764400959015,
        -0.1128755733370781,
        -0.042391471564769745,
        -0.3987922668457031,
        0.0039828382432460785,
        -0.012358130887150764,
        -0.06904984265565872,
        0.0789574608206749,
        0.13812781870365143,
        -0.045824550092220306,
        0.0995839536190033,
        0.17860402166843414,
        -0.6175296902656555,
        -0.3362651765346527,
        0.40505972504615784,
        -0.1415601372718811,
        0.16846303641796112,
        -0.012964164838194847,
        0.06998471170663834,
        -0.04777957871556282,
        -0.19587364792823792,
        0.0822904109954834,
        0.12527567148208618,
        0.12425053119659424,
        -0.14106249809265137,
        0.030108647421002388,
        0.07618070393800735,
        -0.07986314594745636,
        0.051529839634895325,
        -0.08941428363323212,
        -0.2269078642129898,
        0.5512356162071228,
        -0.10933295637369156,
        -0.283006876707077,
        0.14517825841903687,
        -0.021188123151659966,
        -0.08120276778936386,
        -0.1731846034526825,
        0.2008659690618515,
        -0.11563839763402939,
        0.16488899290561676,
        0.23389814794063568,
        -0.31564104557037354,
        -0.1159229502081871,
        0.181783065199852,
        -0.1528676301240921,
        0.22870822250843048,
        0.07473265379667282,
        0.3170841932296753,
        0.17983685433864594,
        0.03927523270249367,
        -0.10375916212797165
      ],
      [
        0.0756492018699646,
        0.06373172998428345,
        -0.14332203567028046,
        0.08873938769102097,
        0.02224387787282467,
        0.07369561493396759,
        -0.1780105084180832,
        -0.013404205441474915,
        0.5898414254188538,
        -0.0950479507446289,
        0.19653616845607758,
        -0.23048943281173706,
        0.1287875771522522,
        0.21656601130962372,
        0.002203160198405385,
        -0.27674123644828796,
        0.0207720585167408,
        -0.33432793617248535,
        0.29081782698631287,
        -0.08313269913196564,
        0.10440053045749664,
        -0.06505675613880157,
        0.14268141984939575,
        -0.23250985145568848,
        -0.08846414089202881,
        -0.06930363923311234,
        -0.04532385244965553,
        0.014311254024505615,
        0.012615847401320934,
        -0.26903653144836426,
        0.18228064477443695,
        -0.011240494437515736,
        -0.09435535222291946,
        -0.15502381324768066,
        -0.0436125323176384,
        -0.2194952517747879,
        -0.11086887121200562,
        0.04261009395122528,
        -0.02372197061777115,
        0.1351729780435562,
        -0.0796184167265892,
        -0.49264949560165405,
        -0.3913634419441223,
        0.04222117364406586,
        -0.04726262390613556,
        0.16410841047763824,
        0.11451976001262665,
        0.012092757038772106,
        -0.1880018562078476,
        0.11088794469833374,
        -0.12435992807149887,
        -0.05382166802883148,
        0.08116612583398819,
        0.22934457659721375,
        -0.1481741964817047,
        -0.22104813158512115,
        -0.03679130598902702,
        -0.1844753921031952,
        0.010760696604847908,
        -0.3237079679965973,
        -0.3190787732601166,
        0.027182623744010925,
        0.041566088795661926,
        -0.17412057518959045
      ],
      [
        0.3392527401447296,
        0.3613516688346863,
        -0.0078116185031831264,
        0.11216884851455688,
        0.10518873482942581,
        0.40102076530456543,
        0.39747828245162964,
        0.008079279214143753,
        0.0431579165160656,
        -0.3042237460613251,
        -0.2885754406452179,
        0.06559426337480545,
        -0.100234754383564,
        0.11366983503103256,
        -0.5944123268127441,
        -0.3317839503288269,
        -0.1468002051115036,
        -0.007095061242580414,
        0.12414027005434036,
        -0.02343655191361904,
        0.23717853426933289,
        -0.3820785880088806,
        -0.08084360510110855,
        -0.11145376414060593,
        0.03554321452975273,
        -0.04371938481926918,
        0.41789084672927856,
        -0.21668651700019836,
        0.3538011312484741,
        -0.22157469391822815,
        0.041490014642477036,
        0.0663965567946434,
        -0.06289451569318771,
        -0.05381612479686737,
        0.1336813122034073,
        -0.10587813705205917,
        -0.3047536015510559,
        0.16353857517242432,
        -0.13812923431396484,
        0.3210398554801941,
        0.03284268081188202,
        -0.2906772792339325,
        0.38939008116722107,
        0.1290593147277832,
        -0.27108871936798096,
        -0.06302604079246521,
        -0.03602595627307892,
        -0.2761748433113098,
        -0.22334764897823334,
        0.11071500182151794,
        -0.08962918072938919,
        0.29465609788894653,
        -0.07737074792385101,
        0.22535324096679688,
        -0.03528878092765808,
        -0.002533791121095419,
        0.009091028943657875,
        0.1116868108510971,
        -0.06578239053487778,
        0.19534800946712494,
        0.10026787221431732,
        -0.10567297786474228,
        -0.03873664140701294,
        -0.049286626279354095
      ],
      [
        -0.09766632318496704,
        -0.06255616247653961,
        0.5728397369384766,
        0.3625916838645935,
        -0.07549130171537399,
        0.06648065149784088,
        0.24877332150936127,
        -0.05028415471315384,
        0.3703080117702484,
        0.1110074520111084,
        -0.125389963388443,
        0.35502487421035767,
        -0.5212720036506653,
        -0.1919938176870346,
        0.0033173798583447933,
        0.24592319130897522,
        0.2219785898923874,
        -0.3369290232658386,
        -0.12527954578399658,
        0.12493237107992172,
        -0.37997639179229736,
        0.09833765029907227,
        0.13521073758602142,
        0.2710592448711395,
        0.20523440837860107,
        0.03696712478995323,
        0.02839372679591179,
        -0.26094722747802734,
        0.06108087673783302,
        -0.16749152541160583,
        0.045072171837091446,
        0.09478525817394257,
        -0.010252917185425758,
        0.1415775567293167,
        -0.17095057666301727,
        -0.30852606892585754,
        0.14961589872837067,
        -0.24158522486686707,
        0.012857710011303425,
        0.08617231249809265,
        0.012538946233689785,
        -0.010794228874146938,
        -0.06293651461601257,
        0.03165696933865547,
        0.0025664949789643288,
        -0.2615160346031189,
        -0.2585787773132324,
        0.0021717872004956007,
        0.1890738308429718,
        -0.07176762074232101,
        -0.18229204416275024,
        -0.1556461602449417,
        0.06816595047712326,
        0.2022399753332138,
        -0.1623992770910263,
        -0.16310232877731323,
        0.09104134142398834,
        0.01168410200625658,
        -0.20061653852462769,
        0.09948666393756866,
        -0.21532395482063293,
        -0.10794118791818619,
        -0.09235803782939911,
        0.10289926081895828
      ],
      [
        -0.0053304946050047874,
        0.138616681098938,
        0.18169763684272766,
        0.5397899746894836,
        0.10196774452924728,
        0.14423617720603943,
        0.018414799124002457,
        0.18297544121742249,
        0.16210849583148956,
        0.19867576658725739,
        -0.12431108951568604,
        0.3143201172351837,
        0.3260536193847656,
        -0.03124532476067543,
        -0.21783868968486786,
        -0.2583484351634979,
        0.048679281026124954,
        0.17417024075984955,
        0.02457466349005699,
        -0.19840049743652344,
        -0.11591312289237976,
        -0.1495235711336136,
        0.12641353905200958,
        -0.3532491624355316,
        -0.11209254711866379,
        -0.07760494947433472,
        -0.052291106432676315,
        -0.09482167661190033,
        -0.1436649113893509,
        0.08586502820253372,
        0.1487894356250763,
        0.08485084772109985,
        0.10681544244289398,
        0.12388904392719269,
        -0.003951133694499731,
        0.11018666625022888,
        -0.00800055917352438,
        -0.07522117346525192,
        -0.4194655120372772,
        0.20964716374874115,
        0.48374518752098083,
        -0.07951498031616211,
        -0.015011006966233253,
        -0.14774145185947418,
        -0.24411536753177643,
        0.40867748856544495,
        0.07252229005098343,
        0.0032444370444864035,
        -0.18454033136367798,
        -0.20332832634449005,
        0.007809341419488192,
        0.045634925365448,
        0.3423480987548828,
        -0.29903721809387207,
        -0.2286667823791504,
        0.23729725182056427,
        0.06701384484767914,
        -0.2684144079685211,
        -0.02014770545065403,
        0.09866169095039368,
        -0.003981400281190872,
        0.08596523106098175,
        -0.13313227891921997,
        0.11170122027397156
      ],
      [
        0.5205132365226746,
        -0.10003793239593506,
        0.06756183505058289,
        -0.058829665184020996,
        0.12904271483421326,
        0.07252279669046402,
        0.44744396209716797,
        0.3357878029346466,
        0.022444432601332664,
        -0.06554005295038223,
        -0.17179140448570251,
        0.17634111642837524,
        0.21542903780937195,
        -0.02533886581659317,
        -0.049148499965667725,
        -0.27721285820007324,
        -0.1939925253391266,
        0.07732570916414261,
        0.18796171247959137,
        0.01566138118505478,
        0.45493969321250916,
        -0.34904834628105164,
        -0.13425080478191376,
        -0.10509038716554642,
        -0.5254027843475342,
        0.18748296797275543,
        0.5194833278656006,
        -0.166662335395813,
        0.3019131124019623,
        0.07267200201749802,
        0.09286913275718689,
        0.4442913830280304,
        -0.0853220522403717,
        0.0605006106197834,
        0.3957309424877167,
        0.03299243748188019,
        0.15920616686344147,
        0.2409098893404007,
        -0.011475599370896816,
        0.07638775557279587,
        0.07558846473693848,
        -0.07383906841278076,
        -0.19407129287719727,
        0.5916939377784729,
        -0.4513523280620575,
        0.4295833110809326,
        -0.4822787046432495,
        -0.39496901631355286,
        -0.08300212770700455,
        0.15629926323890686,
        0.14913800358772278,
        0.4771422743797302,
        -0.03610743582248688,
        0.08833029121160507,
        -0.4550442397594452,
        -0.12172596156597137,
        -0.08275969326496124,
        -0.03228088840842247,
        0.34410804510116577,
        -0.11682631075382233,
        -0.5061545372009277,
        -0.1843314915895462,
        -0.23849265277385712,
        -0.21510004997253418
      ],
      [
        0.06456683576107025,
        0.03209617733955383,
        -0.3079746961593628,
        0.18341679871082306,
        -0.11329773813486099,
        0.08292695879936218,
        -0.1612253040075302,
        0.11682238429784775,
        -0.09383107721805573,
        0.3273265063762665,
        -0.18596461415290833,
        -0.05325445905327797,
        0.04123416170477867,
        0.010210700333118439,
        0.158155158162117,
        0.079398974776268,
        -0.40113022923469543,
        -0.031589336693286896,
        -0.07567112147808075,
        -0.2751695513725281,
        0.38070040941238403,
        0.19760969281196594,
        0.17429615557193756,
        0.2065410017967224,
        0.056941285729408264,
        0.07025225460529327,
        0.20199386775493622,
        0.10529813170433044,
        0.054296210408210754,
        0.09643375128507614,
        -0.14120203256607056,
        0.3899087905883789,
        -0.13413633406162262,
        0.0906815156340599,
        0.31168997287750244,
        -0.2882876396179199,
        -0.23867246508598328,
        -0.08732078224420547,
        0.15880942344665527,
        -0.029433047398924828,
        -0.05863643065094948,
        -0.1330769807100296,
        -0.17289452254772186,
        -0.09172917157411575,
        -0.02104770578444004,
        -0.20440922677516937,
        -0.05011974647641182,
        0.0770830288529396,
        0.1804235875606537,
        0.22627465426921844,
        -0.1494528204202652,
        -0.17059971392154694,
        0.010992640629410744,
        -0.10727863013744354,
        -0.34762173891067505,
        0.2530505955219269,
        -0.04456600174307823,
        -0.13668210804462433,
        -0.17039388418197632,
        0.28116756677627563,
        0.04243915155529976,
        0.06788430362939835,
        -0.006637386046350002,
        0.016321470960974693
      ],
      [
        0.0758228749036789,
        0.014915707521140575,
        0.09564680606126785,
        0.10304741561412811,
        0.15472179651260376,
        0.011368738487362862,
        -0.0931299477815628,
        -0.14845965802669525,
        -0.00530701270326972,
        -0.21096986532211304,
        -0.3594917058944702,
        0.05350802466273308,
        -0.04277249798178673,
        0.12768784165382385,
        0.06830740720033646,
        0.14043845236301422,
        -0.13270564377307892,
        -0.1941455900669098,
        -0.37533295154571533,
        -0.1037035807967186,
        0.04888566583395004,
        -0.19823648035526276,
        -0.03719786927103996,
        -0.1432991921901703,
        0.174530029296875,
        0.07133828103542328,
        0.0037228914443403482,
        0.23805512487888336,
        -0.06003431975841522,
        -0.17564387619495392,
        -0.10844363272190094,
        0.23612217605113983,
        0.2705475986003876,
        -0.31955859065055847,
        -0.368351548910141,
        -0.07363657653331757,
        -0.02838713675737381,
        0.047724444419145584,
        -0.1533558964729309,
        -0.05442088842391968,
        0.053527817130088806,
        0.3974471092224121,
        -0.20991331338882446,
        0.1668969988822937,
        0.2633719742298126,
        0.05682113766670227,
        0.015027487650513649,
        0.11556404829025269,
        -0.19491656124591827,
        -0.06293793022632599,
        0.04244501143693924,
        -0.18432994186878204,
        0.191299170255661,
        0.1884344518184662,
        0.013108013197779655,
        0.20600780844688416,
        0.2266281694173813,
        -0.15509817004203796,
        -0.00222759903408587,
        0.050804924219846725,
        0.14232474565505981,
        0.2878134548664093,
        -0.14061734080314636,
        -0.2725348174571991
      ],
      [
        0.33837562799453735,
        -0.2956673204898834,
        0.006899040192365646,
        0.5501270294189453,
        -0.14466002583503723,
        -0.08359810709953308,
        0.27337491512298584,
        -0.09987156838178635,
        0.6958665251731873,
        0.023340532556176186,
        0.4106845259666443,
        -0.17618954181671143,
        0.006031191907823086,
        -0.3651934266090393,
        -0.1237538531422615,
        0.1285630464553833,
        0.18021942675113678,
        -0.393781840801239,
        -0.0387067049741745,
        0.1352522224187851,
        0.24918760359287262,
        -0.11499356478452682,
        -0.09723027795553207,
        0.13194434344768524,
        -0.2732910215854645,
        -0.1480993628501892,
        0.0329204760491848,
        0.12126174569129944,
        -0.35811787843704224,
        -0.4039987325668335,
        0.6556158661842346,
        -0.22733333706855774,
        0.20147804915905,
        0.4786688983440399,
        -0.051602575927972794,
        -0.3859451413154602,
        -0.3759925365447998,
        -0.311418741941452,
        -0.8622245192527771,
        0.73588627576828,
        -0.24179571866989136,
        0.22018350660800934,
        -0.17882706224918365,
        0.2554554343223572,
        -0.1875246912240982,
        0.5785009860992432,
        0.036519039422273636,
        -0.25148043036460876,
        0.2025616317987442,
        -0.5346867442131042,
        0.3255082368850708,
        0.6920367479324341,
        -0.17075498402118683,
        -0.6545774340629578,
        -0.044002097100019455,
        0.12365700304508209,
        0.04837316647171974,
        0.06491760909557343,
        -0.35676252841949463,
        -0.09631488472223282,
        0.15550749003887177,
        0.6650468707084656,
        -0.08074993640184402,
        -0.3751795291900635
      ],
      [
        -0.39146676659584045,
        0.1898869276046753,
        0.2175259292125702,
        -0.08101886510848999,
        0.001970421290025115,
        0.05480624735355377,
        -0.1231294646859169,
        -0.5937576293945312,
        -0.06993355602025986,
        0.12232373654842377,
        -0.06998378783464432,
        -0.381954550743103,
        -0.19074270129203796,
        -0.18303032219409943,
        0.34911468625068665,
        -0.17246001958847046,
        -0.19091060757637024,
        -0.23375600576400757,
        -0.20377126336097717,
        0.34580910205841064,
        -0.4358154237270355,
        0.13565091788768768,
        0.16400808095932007,
        -0.19358453154563904,
        0.20458488166332245,
        0.018957745283842087,
        -0.09956271201372147,
        0.30840417742729187,
        0.33753758668899536,
        0.41159704327583313,
        -0.04295564815402031,
        -0.039054688066244125,
        -0.07801327854394913,
        0.06203501671552658,
        -0.07323527336120605,
        -0.03599339723587036,
        0.04486042633652687,
        0.1385527402162552,
        0.022410698235034943,
        -0.2904343903064728,
        -0.211166113615036,
        -0.041769854724407196,
        0.15662544965744019,
        -0.05820152163505554,
        0.3648110628128052,
        -0.0015314739430323243,
        -0.1141464039683342,
        0.03111186809837818,
        0.26130980253219604,
        -0.2421494573354721,
        -0.07571430504322052,
        -0.42190441489219666,
        -0.045553576201200485,
        -0.29867127537727356,
        0.35408326983451843,
        0.3524768352508545,
        0.09089712798595428,
        0.10570365935564041,
        -0.15348027646541595,
        -0.14214089512825012,
        -0.20800289511680603,
        0.08657180517911911,
        -0.095054030418396,
        0.1386336088180542
      ],
      [
        0.11073920875787735,
        0.2728513181209564,
        -0.012657633051276207,
        -0.05743565410375595,
        -0.1343858391046524,
        0.0714239701628685,
        0.2721375823020935,
        0.16780515015125275,
        -0.048986319452524185,
        -0.05556175857782364,
        0.1844065934419632,
        0.2307513803243637,
        0.37332889437675476,
        -0.14498662948608398,
        0.03108309954404831,
        -0.11541764438152313,
        -0.0982169434428215,
        -0.31386056542396545,
        -0.08967076987028122,
        -0.2881680130958557,
        0.264618456363678,
        0.06341581046581268,
        0.07366330176591873,
        0.07799481600522995,
        0.0734468400478363,
        0.03226173296570778,
        0.2406020611524582,
        -0.10731460899114609,
        0.05631018057465553,
        -0.03440794348716736,
        -0.11863228678703308,
        -0.1464255452156067,
        -0.01630091667175293,
        0.17454072833061218,
        0.04924818500876427,
        -0.13243858516216278,
        0.04948951303958893,
        0.24100026488304138,
        -0.43532997369766235,
        -0.09488552063703537,
        -0.12455613166093826,
        0.07475291192531586,
        0.28312382102012634,
        0.23535805940628052,
        -0.21785548329353333,
        0.42119842767715454,
        -0.2273811548948288,
        -0.02148180454969406,
        -0.14472950994968414,
        0.30425360798835754,
        0.2078579068183899,
        0.14820751547813416,
        0.24061238765716553,
        0.11215042322874069,
        -0.3597555160522461,
        -0.06058654189109802,
        -0.3807361125946045,
        -0.03527739271521568,
        0.07824662327766418,
        0.03617686405777931,
        -0.03503228724002838,
        0.027581343427300453,
        0.6858287453651428,
        -0.23018811643123627
      ],
      [
        0.341135174036026,
        0.225356325507164,
        -0.2528562545776367,
        0.16327248513698578,
        0.3145727217197418,
        0.07552577555179596,
        0.22004103660583496,
        0.14326001703739166,
        0.02180290035903454,
        0.05490828678011894,
        0.08969122171401978,
        0.00795094296336174,
        0.28248509764671326,
        -0.2187991589307785,
        -0.49885094165802,
        -0.38159701228141785,
        -0.04180210828781128,
        0.033125437796115875,
        0.09396535158157349,
